{
    "bias": [
        [],
        [
            -1.7419424909928845,
            0.9308532757543987,
            2.599044501102193,
            -1.3921391336620412,
            -1.3442006443474621
        ],
        [
            -0.010018342689421261,
            -1.5196187182436172,
            -0.2481175165432437
        ],
        []
    ],
    "model_dict": {
        "cost": "mse",
        "hidden": [
            [
                5,
                "logistic"
            ]
        ],
        "input": 4,
        "output": [
            3,
            "logistic"
        ]
    },
    "weights": [
        [],
        [
            [
                1.849567891410436,
                -0.9867087551918111,
                -2.4690306749854836,
                1.3599688406389752,
                -0.4267864453103847
            ],
            [
                1.8452198836282854,
                -1.0095809628882746,
                -2.9909941300727003,
                2.3967858249924103,
                0.8615887711507945
            ],
            [
                -0.9628137088542048,
                -0.4735340889577546,
                1.5194805243890672,
                0.6355177164348932,
                0.21490566606501885
            ],
            [
                -1.4737539489305391,
                1.6542997322479303,
                1.7008656646539224,
                -2.4114321703353387,
                0.581022272745327
            ]
        ],
        [
            [
                -2.1429870622612373,
                -2.929184115250363,
                1.9799637027524755
            ],
            [
                1.464720553754023,
                -1.720087259966233,
                -1.7344495335492125
            ],
            [
                1.0732596834479922,
                2.192731383159284,
                -3.4816513585443736
            ],
            [
                -3.0529815079475924,
                3.5620997474991447,
                0.7218535130679474
            ],
            [
                0.0780552141927727,
                -2.100114416313323,
                0.2976834121135637
            ]
        ],
        []
    ]
}