{
    "bias": [
        [],
        [
            0.23939724392688314,
            0.4296996138244331,
            -0.1973418486337884,
            0.47415711750563894,
            0.2151154764276724,
            0.1912237649497893,
            0.09172977746528704,
            0.29562697535137367,
            0.2769049720795153,
            0.277117289803808
        ],
        [
            -0.20827141816449832,
            -0.3058118885277554,
            0.05516788525250386
        ],
        []
    ],
    "model_dict": {
        "cost": "mse",
        "hidden": [
            [
                10,
                "relu"
            ]
        ],
        "input": 21,
        "output": [
            3,
            "linear"
        ]
    },
    "weights": [
        [],
        [
            [
                -0.19143500242394293,
                -0.14421313905089186,
                0.027435575605321415,
                -0.24346471241308215,
                -0.15978542987711147,
                -0.2159731110274563,
                0.18312369021499275,
                -0.13782834943186947,
                0.05788631952740978,
                0.07905658107286205
            ],
            [
                -0.26624439184114557,
                -0.4910375359070716,
                -0.14968090925428595,
                0.5954800619334277,
                -0.2849475959361068,
                -0.22110191832636317,
                -0.12075266430793014,
                0.085338282080852,
                0.11034788508588628,
                0.5059218069456201
            ],
            [
                -0.2849274834268636,
                -0.34124352629762855,
                -0.003269940870668336,
                0.8169885541943561,
                0.05799311696480677,
                -0.2504409884188746,
                0.7852481755241137,
                -0.10667085952804628,
                -0.01147347290370099,
                -0.31607172956385127
            ],
            [
                0.563491936166557,
                -0.4143414203674699,
                -0.11838417737842731,
                -0.4379973087785139,
                0.27900327099876926,
                0.18428565195414245,
                -0.11278009504114885,
                0.48917387292131637,
                -0.11301468824993863,
                -0.24849783789256355
            ],
            [
                0.18718570887223668,
                0.7878437136139799,
                0.0012957067788659687,
                -0.4126235647498602,
                -0.2849056090934239,
                -0.3533683881074737,
                -0.12279507364141595,
                -0.507503876380564,
                0.35334590921441583,
                0.11911233863502502
            ],
            [
                -0.1869701225731514,
                -0.3032300278805534,
                -0.1388261982813929,
                0.45896342110278204,
                -0.2875006726432064,
                -0.21952809451689817,
                -0.10697898153784283,
                0.35100259290197866,
                -0.31638498395435033,
                0.2423501434802761
            ],
            [
                -0.2696030747730203,
                -0.18701504031660607,
                0.0005863294917736986,
                0.15221424884577495,
                0.38295049243515983,
                -0.23727359364818704,
                0.6060281533867808,
                0.6479022634569959,
                -0.2694271689467815,
                -0.32082535962958797
            ],
            [
                -0.08309835429565912,
                -0.4810894693714278,
                -0.18387349876899656,
                -0.5271361606518035,
                -0.27571132368542767,
                0.4024507002732996,
                -0.21894241432435838,
                0.8335760614490316,
                -0.28313875696127955,
                -0.3426573417142187
            ],
            [
                0.11449786250445242,
                0.5919360070821192,
                -0.10732897732519565,
                -0.33856127308215783,
                -0.23098956779063815,
                -0.36964702691152374,
                -0.25125187337707766,
                -0.32522709294465124,
                0.6207143083685468,
                -0.06264403748332
            ],
            [
                -0.3063962117061862,
                -0.40703135333996593,
                -0.026268565699556795,
                0.3946343114268,
                -0.2933442955620375,
                -0.2114719728924811,
                -0.1462020358971642,
                0.2153357893014727,
                -0.17777303044145287,
                0.3490496831689386
            ],
            [
                -0.26301266642752047,
                -0.2793217641901066,
                -0.2948606489950227,
                0.31147220496072614,
                -0.07720108055516044,
                -0.22111310382723967,
                0.5122561117199462,
                0.6588090123066085,
                -0.29442445904147907,
                -0.3122278268745167
            ],
            [
                0.07290608519030452,
                -0.17744227377144417,
                0.1973110490589373,
                -0.154749555833154,
                0.5499442083862225,
                0.620884233638298,
                -0.10172141782025362,
                0.37012841979853306,
                -0.20208453043978788,
                -0.3359168070934559
            ],
            [
                0.16823441501313097,
                0.5340179986609552,
                -0.0037616783643162894,
                -0.1675279068980494,
                -0.24888547173384346,
                -0.3527041524272613,
                -0.11506841743247549,
                -0.513529409286629,
                0.682202385301139,
                -0.3212710577265897
            ],
            [
                -0.2568373404319929,
                -0.477068834082599,
                0.03174490712515687,
                0.3810431943679703,
                -0.2352831818460739,
                -0.21223035560354586,
                -0.10483689423920167,
                0.1912536982245639,
                -0.24286100813559508,
                0.13471735853421637
            ],
            [
                -0.3044609589040506,
                -0.29956242655503285,
                -0.025605941158851942,
                0.614787498249925,
                0.4386381318464086,
                -0.2511617658391129,
                -0.29039981756223093,
                0.45321215498425615,
                -0.31301819874437803,
                -0.3088334770129891
            ],
            [
                0.13808158206361482,
                -0.3414880711804407,
                0.18868228759055203,
                -0.5005757660680937,
                0.35022358220641064,
                0.006564822363518055,
                -0.11416409254031408,
                0.4756634225197068,
                -0.0497612425955549,
                -0.31662934099766826
            ],
            [
                0.30682008686797985,
                0.3605645100192289,
                0.0027507411774596196,
                -0.36950962045632013,
                -0.2996831968719808,
                -0.11918394330972099,
                0.1434072792221436,
                -0.32586711912938804,
                0.44577449363783556,
                0.15866925581726052
            ],
            [
                -0.22219539993694745,
                -0.24738708404501736,
                -0.1869856355123872,
                0.17492251719390206,
                -0.023319010399370184,
                0.07607590215311039,
                -0.08368387265102607,
                0.037234045500002665,
                -0.20137767744631263,
                0.25522581477432615
            ],
            [
                0.11150232435118598,
                0.24144141647727166,
                -0.1735049701854429,
                -0.19271529949404734,
                -0.033743774618975736,
                -0.16132559317961329,
                0.006993916567509192,
                0.22397287973698674,
                -0.2394936386988525,
                0.26118439440754176
            ],
            [
                0.896291803094074,
                -0.14326862142008356,
                0.19347359221502755,
                -0.5188699710999921,
                0.2219075755199705,
                0.07956470399374334,
                -0.10307263584757749,
                0.40699448666732946,
                -0.005757274636286251,
                -0.31824408896229317
            ],
            [
                -0.17893837852300562,
                -0.04693195191643284,
                0.013144437671238482,
                0.22049670435403038,
                0.02566944138334166,
                0.22374028720739436,
                -0.19479455486904443,
                -0.13700118534784006,
                0.2711698868295401,
                -0.10262431959867706
            ]
        ],
        [
            [
                -0.10561733422431388,
                -0.3922246113909275,
                0.23266806093333944
            ],
            [
                -0.5398601380954042,
                -0.2258113170135484,
                -0.46146380991125663
            ],
            [
                -0.01879029526942542,
                -0.33610876332158857,
                -2.470967290675204e-05
            ],
            [
                0.9596863225960932,
                0.6409865377150235,
                -0.5529159575879022
            ],
            [
                -0.10206210330027404,
                0.2852782215105071,
                0.5842429755829566
            ],
            [
                -0.037010030039464965,
                -0.14281531553954438,
                0.3154342834003151
            ],
            [
                -0.37557997544095556,
                0.5094456708882655,
                -0.1119359838341078
            ],
            [
                0.2889792248732421,
                0.40902732579383116,
                0.5941694857772646
            ],
            [
                -0.3964636335819116,
                -0.3912885875014163,
                -0.42146278755278704
            ],
            [
                0.28762587301524,
                -0.08294191093728172,
                -0.6728802314449599
            ]
        ],
        []
    ]
}